dense/kernel:0
(1, 150)
[[-6.46950662e-01  3.10824573e-01  2.19713137e-01  4.48216319e-01
   4.86128688e-01  1.92928500e-02 -2.38671869e-01  7.32678473e-01
  -4.93153274e-01  5.94099939e-01 -1.21989019e-01  1.96315989e-01
   5.62894106e-01 -1.86452046e-01  3.73044580e-01 -6.42237186e-01
   7.20229924e-01 -9.58207250e-01 -3.58405411e-01  8.91244039e-02
  -3.52025747e-01  2.14473441e-01 -3.91043186e-01 -8.72274637e-01
  -6.33745566e-02 -2.55476475e-01 -7.24855764e-03 -1.93273555e-02
  -3.75868142e-01  2.00821549e-01 -2.52018929e-01  1.34592414e+00
   5.60391963e-01  1.72352105e-01  8.06005776e-01  8.62625122e-01
  -9.42058384e-01 -2.46086419e-01 -3.26886445e-01  1.59252059e+00
   2.63866410e-02 -4.39207196e-01 -8.14101934e-01  5.19912601e-01
   1.44376159e+00  1.46168709e+00  7.52083302e-01  7.29128718e-01
  -5.72188795e-01 -2.60168374e-01 -4.45202500e-01  5.93272261e-02
   4.62749034e-01 -5.01684427e-01 -4.94084600e-03 -7.11591542e-01
  -7.18907058e-01 -1.14771359e-01 -8.71752560e-01  5.12359105e-02
   2.74220347e-01  2.94054896e-01 -3.82520229e-01 -1.04458109e-01
  -2.16992185e-01 -8.11222196e-01  3.83955538e-01  5.14062881e-01
  -2.69471109e-02 -6.30905330e-01 -3.16514522e-01 -1.55492559e-01
  -7.47726066e-04 -4.33369786e-01  9.02331322e-02 -1.08025424e-01
  -1.10533130e+00 -1.02276897e+00 -9.61306453e-01 -4.01666909e-01
  -6.43074274e-01  6.17908128e-02 -9.62017328e-02  7.27134705e-01
  -4.67637986e-01  2.84429580e-01 -1.55882314e-01 -7.51682878e-01
  -4.38194424e-01 -1.06095648e+00  1.50230396e+00 -3.52188736e-01
  -2.47440195e+00 -1.10688858e-01  1.73644975e-01 -1.25209689e+00
  -2.93934438e-02  9.25550103e-01 -4.08175550e-02 -6.38880849e-01
   1.68158364e+00 -4.26899582e-01 -4.74950761e-01  3.25093597e-01
   3.77634406e-01  9.95205715e-02 -9.34159756e-03 -1.14748552e-01
  -3.22580218e-01  1.28297031e+00 -1.44185746e+00  1.20841719e-01
  -4.30498242e-01  1.60283267e-01 -6.40392661e-01  1.58706939e+00
   2.37277020e-02 -9.50971544e-02  4.52245176e-01  5.54159760e-01
  -7.95838058e-01 -3.78553160e-02  1.05633318e-01 -3.36343765e-01
  -8.26746970e-02 -2.57007815e-02 -6.15011632e-01 -2.56566137e-01
  -2.51866609e-01 -3.20371985e-01 -3.19909960e-01  1.81275889e-01
   4.64139402e-01  5.40497005e-01  4.97479945e-01 -3.00002247e-01
  -3.58838290e-02  9.40648258e-01  4.17221993e-01  1.27663624e+00
  -3.65269452e-01 -4.42716122e-01  6.02131009e-01  2.53513932e-01
  -4.69869018e-01  7.33548701e-01 -5.34258842e-01 -1.08893566e-01
   1.36827397e+00  1.03048958e-01]]
dense/bias:0
(150,)
[-8.5643494e-01  3.7736726e-01  1.7677851e-01  7.4214178e-01
  2.7004436e-01 -3.4984398e-01 -2.5257367e-01  3.9545280e-01
 -5.5265057e-01  9.1702563e-01 -2.3641916e-01  2.1025765e-01
  7.5245392e-01  1.6291486e-01  2.9933506e-01 -8.3245033e-01
  1.0685219e+00 -9.1561294e-01 -4.1163668e-01 -5.0721850e-02
 -3.3368367e-01  3.1234851e-01 -4.0305582e-01 -5.4945195e-01
 -1.4089179e-01  3.0557506e-02 -3.2528377e-01 -1.9136813e-01
 -1.9055291e-01  6.1240441e-01 -4.2765981e-01  1.6091658e+00
  7.8673875e-01  3.5721326e-01  1.0385673e+00  1.0939220e+00
 -8.0884749e-01 -3.5955742e-01 -2.6147389e-01  1.4411913e+00
 -1.9356930e-01 -3.5773581e-01 -4.6115956e-01  3.8062745e-01
  1.4515913e+00  1.5117521e+00  1.2076447e+00  5.7105500e-01
 -1.6652328e-01 -6.6932291e-02 -6.5592837e-01  6.7169026e-02
  7.4266243e-01 -4.3399608e-01 -2.4640879e-01 -4.2062762e-01
 -6.3147920e-01 -2.9013908e-01 -9.2795730e-01 -5.9495620e-02
  5.5592257e-01  3.2452214e-01 -7.3588908e-01 -4.4243056e-02
 -3.3394232e-01 -9.4466388e-01  7.8669481e-02  4.6384346e-01
  8.0221139e-02 -7.1327108e-01 -2.4167307e-01 -4.7354135e-01
 -1.8910126e-01 -3.3311588e-01  6.7665391e-02  3.2006663e-01
 -8.2173878e-01 -9.1673279e-01 -8.6683929e-01 -1.3077897e-01
 -1.0069087e+00 -3.0292931e-01 -6.6767521e-02  8.7490445e-01
 -4.1768795e-01  2.9670230e-01 -2.3538733e-01 -8.2948416e-01
 -4.1600946e-01 -1.4427099e+00  1.6344781e+00 -3.8539475e-01
 -2.8802562e+00  2.7673157e-02 -3.9183322e-02 -1.5802271e+00
  2.4891534e-01  8.3301938e-01 -3.3090174e-02 -6.3367701e-01
  1.7900139e+00 -4.1219985e-01 -5.2775598e-01  1.2162772e-01
  3.2679594e-01 -1.7952493e-01  2.1443963e-01 -4.8761345e-02
 -8.3581433e-02  1.2389092e+00 -1.8518826e+00 -1.1691290e-01
 -9.0197062e-01  2.5156397e-01 -6.2837553e-01  1.6154413e+00
 -3.2095781e-01  4.5567107e-01  2.4313584e-01  6.6702634e-01
 -5.2765608e-01 -2.7263094e-02 -1.1897836e-03 -4.3648005e-01
 -3.8519092e-02 -7.9537500e-03 -9.6313244e-01 -5.2671194e-01
  7.3030636e-02 -1.6657472e-01 -4.5519346e-01  2.3472214e-02
  7.0408964e-01  5.6198710e-01  6.2608439e-01 -4.6127930e-01
 -3.5538588e-02  8.5192549e-01  2.9695958e-01  1.1027806e+00
 -3.5636422e-01 -2.9752433e-01  5.1258326e-01  2.8752214e-01
 -2.4621210e-01  5.1680464e-01 -7.9990065e-01 -3.8785402e-02
  1.3256404e+00  2.9852629e-01]
dense_1/kernel:0
(150, 200)
[[-0.4540359  -0.20192935 -0.41204062 ...  0.09335706 -0.3737023
   0.09472095]
 [-0.48825425 -0.322188    0.56375766 ... -0.30042467  0.2653284
  -0.11597086]
 [-0.34354472  0.18527693  1.0694095  ... -0.38479885  0.2730912
  -0.03434842]
 ...
 [ 0.29910237  0.558104   -0.47543406 ...  0.23030928 -0.624853
   0.25381842]
 [-0.14770663 -0.18883078  2.3558135  ... -0.63638234  0.42821103
  -0.19267818]
 [ 0.2124497  -0.6035332   0.5975196  ...  0.13052    -0.5500516
  -0.08359836]]
dense_1/bias:0
(200,)
[-0.24629049 -0.47757593  1.2706277   1.3002365  -0.45900232 -0.1842818
 -0.1505388   0.6846975  -0.4581834  -0.15420689  0.45643118 -0.25745952
 -0.11878131 -0.70773095  0.1132635  -0.08904325 -0.30628166 -0.431387
  0.42862332 -0.25010315 -0.36245328 -0.202395   -0.20521247 -0.09696054
 -0.94501406 -0.11114597 -0.29642472 -0.11123135 -0.15227364  0.3640347
 -0.17222203 -0.1936847  -0.23819354 -0.31912386 -0.8934184   0.19109705
 -0.22278133 -0.4987692  -0.39206398 -0.4317     -0.64287317 -0.1366466
 -0.13130942 -0.16661249 -0.19571301 -0.19617623 -0.33361673 -0.38574404
 -0.53277475 -0.12810794 -0.5450598  -0.68282104 -0.29320642  0.5250137
  0.6992736  -0.00610171 -0.5615857  -0.25996152 -0.21568327 -0.30534777
  0.85313374 -0.46566623 -0.60788405  0.5483472   1.9273988  -0.3106148
 -0.34988114 -0.06508169 -0.11760942 -0.25609234 -0.15547471 -0.15343991
 -0.37541342 -0.33804223 -0.16441602 -0.06112114 -0.41960463 -0.16405377
 -0.08837567 -0.3738507  -0.07990988 -0.22139417 -0.3418421  -0.09719133
 -0.5747555  -0.7437325  -0.06932791 -0.38591918 -0.69096327 -0.1515723
 -0.381533   -0.08087858 -0.40087104 -0.38829222 -0.8079239  -0.311421
 -0.06112634 -0.45012128 -0.19984992  1.5678208  -0.1580278   0.31136832
 -0.44793192 -0.41423386 -0.18085295 -0.25002658  1.8545653  -0.8361278
 -0.25916636 -0.08175397  0.15889178 -0.4726695  -0.4158231  -0.17077039
 -0.13183093 -0.29063478 -0.09842219 -0.55260783  0.03564168 -0.42529395
 -0.42775327 -0.46877262 -0.5333211   0.03761758 -0.40510032 -0.29863912
 -0.65817916 -0.10008864 -0.15839161  0.7531908  -0.07009395 -0.31529108
 -0.35785386 -0.33753893 -0.4334997  -1.0405499  -0.20749702 -0.2628409
 -0.09121437 -0.37782285 -0.5174233  -0.11051917 -0.16705179 -0.20397057
 -0.077626   -0.14562023 -0.0986366  -0.15894483 -0.5825251  -0.24389876
 -0.9057567  -0.22492167 -0.21654274 -0.09746543 -0.19132943 -0.5385746
 -0.14802648 -0.28653947 -0.31538412 -0.34899    -0.5173613   0.11520786
 -0.16036482 -0.3454438  -0.07822695 -0.09791224 -0.213249   -0.34320506
 -0.4925573  -0.8178464  -0.5975717   0.739582   -0.15385304 -0.3667846
 -0.38583222 -0.30098984 -0.15027502 -0.06459533  0.7714665   0.77856654
 -0.27064022 -0.1913784  -0.45514154 -0.1182333  -0.34399837 -0.15209685
 -0.2327229  -0.7367445  -0.06955588 -0.66724896 -0.22909787 -0.46456948
 -0.22736894 -0.2401453   0.14417513 -0.5914823  -0.635779   -0.6901152
  0.23806478 -0.11057276]
dense_2/kernel:0
(200, 150)
[[-0.17146987 -0.02535646  0.11234131 ...  0.04960472  0.07134993
  -0.3479316 ]
 [-0.12371266 -0.14444211 -0.15140124 ...  0.04479854 -0.3036815
   0.03787654]
 [-0.2027879  -0.3630617  -0.48028755 ... -0.45954224 -0.07912194
  -0.18264888]
 ...
 [-0.13292286 -0.03719354 -0.03902908 ... -0.0352192  -0.09100553
   0.02341657]
 [ 0.01772109 -0.16748452 -0.41566488 ...  0.04485904  0.01138682
  -0.10986164]
 [-0.08757102 -0.04605927 -0.02186862 ... -0.15105218 -0.1620697
  -0.03652371]]
dense_2/bias:0
(150,)
[-0.23993674 -0.25811407 -0.5185189  -0.6322603  -0.12934376 -0.26742148
 -0.07644246 -0.41205004 -0.3198845  -0.1716073  -0.10107999 -0.263735
 -0.1355395  -0.08822156 -0.37185028 -0.32270607 -0.08881763 -0.08483084
 -0.17908947 -0.13857935 -0.13463756 -0.36925164 -0.1413767  -0.25414723
 -0.42007813 -0.4606559  -0.3637805  -0.669013   -0.10364276 -0.06238021
 -0.36043185 -0.45973015 -0.10681878 -0.33712614 -0.14479847 -0.19705059
 -0.13592964 -0.18862106 -0.06134913 -0.49150106 -0.25591365 -0.02159323
 -0.2772279  -0.10814897 -0.23605949 -0.08229867 -0.27991343 -0.39455166
 -0.34659663 -0.13688031 -0.22916925 -0.05015289 -0.12911586 -0.34727153
 -0.04416137 -0.21832435 -0.15020049 -0.19057907 -0.28059682 -0.39516568
 -0.16539523 -0.76756567 -0.31069076 -0.28175294 -0.37869936 -0.06005191
 -0.0868364  -0.3762878  -0.11179414 -0.74867374 -0.13868397 -0.31936193
 -0.099369   -0.21751408 -0.09685346 -0.08665741 -0.35430762 -0.48881456
 -0.22700566 -0.25471944 -0.11307508 -0.08141021 -0.32464904 -0.3214234
 -0.1298633  -0.01025529 -0.18510258 -0.19234553 -0.2692776  -0.15253294
 -0.10009402 -0.22527032 -0.24399452 -0.3836344  -0.08617891 -0.6749897
 -0.06267612 -0.26376456 -0.42507944 -0.24561158 -0.09659662 -0.08691745
 -0.07846054 -0.54806596 -0.8706495  -0.14522314 -0.02211938 -0.1312369
 -0.12292948 -0.09361511 -0.5613292  -0.45655423 -0.38403708 -0.111344
 -0.06767973 -0.57532346 -0.83937943 -0.12255806 -0.37122026 -0.37458214
 -0.21284808 -0.08866623 -0.14562286 -0.01697987 -0.0686993  -0.1713537
 -0.18112342 -0.26152068 -0.09692909 -0.35647956 -0.31936878 -0.19120686
 -0.06202943 -0.38899064 -0.08185958 -0.13948834 -0.18754761 -0.19689372
 -0.10207715 -0.07296177 -0.40669554 -0.07857529 -0.07976038 -0.06959751
 -0.28323576 -0.23307128 -0.2410509  -0.71565074 -0.28759703 -0.06912089]
dense_3/kernel:0
(150, 1)
[[-0.00272909]
 [ 0.04207058]
 [-0.21741411]
 [ 0.06499708]
 [-0.0824124 ]
 [ 0.05758838]
 [ 0.0304448 ]
 [-0.02304546]
 [-0.21940875]
 [ 0.05243095]
 [-0.03146326]
 [-0.14283814]
 [ 0.07059985]
 [ 0.04900037]
 [-0.18383922]
 [ 0.16405599]
 [-0.13458441]
 [ 0.06211404]
 [ 0.11762851]
 [-0.08049923]
 [ 0.1881592 ]
 [-0.296345  ]
 [ 0.0150168 ]
 [-0.16028863]
 [-0.02841393]
 [ 0.2837646 ]
 [-0.2766481 ]
 [-0.27984273]
 [ 0.23829703]
 [ 0.10978783]
 [ 0.06975368]
 [ 0.26557258]
 [-0.06089158]
 [-0.07476146]
 [ 0.02990793]
 [-0.23085104]
 [ 0.0621629 ]
 [ 0.09257448]
 [-0.16045494]
 [-0.3154219 ]
 [ 0.15046103]
 [-0.06774991]
 [-0.2071434 ]
 [-0.21331644]
 [-0.09288105]
 [ 0.00436033]
 [-0.01231411]
 [ 0.07658516]
 [ 0.10520203]
 [-0.0252659 ]
 [-0.1143878 ]
 [ 0.00997506]
 [-0.17713416]
 [-0.19013314]
 [ 0.00652463]
 [ 0.04457508]
 [-0.01553368]
 [ 0.17113547]
 [-0.20615432]
 [-0.01341149]
 [-0.01398607]
 [-0.09089804]
 [ 0.11111606]
 [ 0.22724597]
 [ 0.20800687]
 [-0.11477213]
 [-0.08152962]
 [-0.2745905 ]
 [-0.06141244]
 [ 0.00571459]
 [ 0.1312792 ]
 [-0.10450881]
 [ 0.04907661]
 [-0.00970989]
 [ 0.02652235]
 [ 0.03139278]
 [-0.30066788]
 [-0.27408138]
 [-0.05583902]
 [ 0.1397134 ]
 [-0.00727113]
 [-0.06195726]
 [-0.19504397]
 [-0.19709043]
 [ 0.09511319]
 [-0.02518828]
 [ 0.15258723]
 [-0.25350028]
 [-0.17991066]
 [ 0.08551753]
 [ 0.27131128]
 [-0.07438273]
 [ 0.04809846]
 [-0.10385773]
 [-0.0278334 ]
 [ 0.2019883 ]
 [-0.03110456]
 [-0.2906575 ]
 [ 0.12767918]
 [ 0.22250591]
 [ 0.02197984]
 [-0.02896948]
 [ 0.01942134]
 [ 0.12423058]
 [ 0.13381457]
 [ 0.02140693]
 [ 0.00192054]
 [ 0.01280435]
 [-0.1078712 ]
 [ 0.09176668]
 [-0.13607174]
 [-0.0381302 ]
 [-0.01474934]
 [ 0.04863616]
 [ 0.13212146]
 [ 0.05917694]
 [ 0.23817745]
 [-0.14058635]
 [-0.15059982]
 [-0.04135432]
 [ 0.23295526]
 [ 0.00736058]
 [ 0.2029586 ]
 [ 0.02800406]
 [-0.07454086]
 [ 0.26946393]
 [ 0.08440106]
 [ 0.17909871]
 [-0.02678991]
 [-0.10222876]
 [-0.28422695]
 [-0.03821771]
 [ 0.01167529]
 [-0.0011236 ]
 [-0.02519664]
 [ 0.1992084 ]
 [ 0.04905924]
 [ 0.14939733]
 [-0.01870809]
 [-0.02609233]
 [-0.18207571]
 [-0.02835769]
 [ 0.04632679]
 [-0.05372144]
 [ 0.12072099]
 [-0.06075082]
 [-0.19725582]
 [-0.20929267]
 [-0.14124572]
 [ 0.10329518]]
dense_3/bias:0
(1,)
[0.25554788]
